{
    "weights": [
        [
            [
                -0.30559749557002924,
                -0.5030820198636948,
                -0.8405764339328247,
                -1.9827066296414748,
                0.3835740241511307,
                -1.0210675814197272,
                -0.4344684549913277,
                -0.05797771246513195,
                -0.6348315915591305,
                -0.42584678313340296,
                -0.5131362477238723,
                -2.030723113536782,
                -0.11171344645842668,
                -0.7654354027503232,
                -0.9796885363621617,
                -0.4197581350352519
            ],
            [
                -0.07304479862845498,
                -0.7453871546526881,
                -0.314816202981097,
                1.2437561417827712,
                1.3569727739280977,
                -0.6156272007550833,
                -1.360083197462969,
                -0.12396443401323237,
                0.2216203037964219,
                -1.291896162342466,
                -1.3731253321383028,
                -0.42475728186106265,
                0.693907141750223,
                -1.7596139162358517,
                -0.7568901514385972,
                -0.5220431636749675
            ],
            [
                -0.06323635688551615,
                -0.07244384710250817,
                1.1459876161101057,
                -0.7773613078887619,
                0.29485053755123825,
                0.21979453562869078,
                -0.4210593162103674,
                -1.3409572044203777,
                -1.620858763977795,
                -0.46043141763796147,
                0.9091342049468563,
                -0.8805091625711398,
                1.2733276575309047,
                -0.08819405172580226,
                -0.605877949892934,
                0.6153821256421472
            ],
            [
                0.06103661933435979,
                1.8226427228073163,
                -1.1560949559553129,
                -1.1425374643611752,
                -0.5696661329745893,
                -1.1453334468200542,
                -0.34240453392076203,
                -0.9676505830520116,
                1.450234983110383,
                0.44810452741578916,
                2.4545562193386155,
                0.22664517016497046,
                1.1290729242506343,
                -1.3489647841211645,
                -2.3338028970637645,
                1.5673443946443661
            ]
        ],
        [
            [
                0.4384583333794587,
                0.6367395679589534,
                0.491430162059039,
                1.0676893131380047,
                -0.076636237389096,
                -0.8683976512722507,
                0.250287478691331,
                1.650599787053153
            ],
            [
                -3.3788834933450396,
                0.340570667403337,
                -0.20281742040885112,
                -0.07226979633505841,
                -0.10822218441779137,
                -0.24362655781881568,
                0.8050083175608643,
                -0.5366652808223055
            ],
            [
                -0.41985056235019763,
                -0.26257324213715705,
                0.667281005636988,
                -1.313057282649743,
                2.899553836192504,
                -0.6974086869902291,
                0.5746869215977114,
                -0.7948582243048206
            ],
            [
                -0.5498116719014019,
                0.49825575132850647,
                0.2617219188533902,
                0.1223657349635565,
                -0.44505921559779077,
                1.6840579285171817,
                0.3260551872184508,
                1.0017153656938027
            ],
            [
                -1.754464296042048,
                0.590141597220492,
                0.6005592900633231,
                0.8571688588798838,
                -0.5364158038104342,
                -1.9327656975993037,
                -0.7799770149480725,
                -0.4173174041229602
            ],
            [
                1.7997546166850862,
                1.1279873768668063,
                0.808552070724399,
                -0.3443761526296773,
                -1.1480761550858145,
                -0.02712849616324438,
                0.12321197470670274,
                1.4194641851108096
            ],
            [
                0.19855497066047573,
                0.13478501246114405,
                -0.8352652504613582,
                -1.394611699755364,
                0.3739822521394009,
                -0.014604571545328156,
                0.2075804479541294,
                0.13015897371460858
            ],
            [
                0.18863454257403792,
                -0.5131002635543112,
                -3.012672481950393,
                -1.3719352730531424,
                0.8587579442673278,
                0.5139446632662337,
                -0.1872138608487225,
                0.48396222003363243
            ],
            [
                -0.8607397203216975,
                -0.23537424453767875,
                0.3911919054216336,
                1.123394978858008,
                0.2910127493647538,
                1.3123392576879358,
                1.0559184967084978,
                -0.6290316080624164
            ],
            [
                -1.1099457652535825,
                -0.5169041198240987,
                1.0335024657780754,
                1.0055666919836321,
                -1.0025192969155268,
                1.7577581187305502,
                -0.25244402913105435,
                -0.5253515696425003
            ],
            [
                -0.7719246607668202,
                -1.0853031576806285,
                1.4946446151018524,
                -0.0021796234817414335,
                -2.56138021647144,
                -0.8830841600089854,
                0.2169244371420097,
                1.1932343874669114
            ],
            [
                -0.36598497419792114,
                -0.3632339192501118,
                0.24025688776604678,
                -1.5399614830483008,
                0.3095483156131965,
                0.3173828951647085,
                0.4612346430834222,
                0.4631360260276462
            ],
            [
                0.8536372773842347,
                -0.4182351404957575,
                -0.46756355396598925,
                -0.7411418374526841,
                -0.31477771944001115,
                -1.4116227618764094,
                0.9951196653022535,
                -1.2846884268977328
            ],
            [
                0.8190058414068445,
                1.7619279986712273,
                -2.076363521212574,
                0.24458427914490113,
                -0.23393353707996106,
                0.6147376781900199,
                -1.5824818609676485,
                1.3305191469967854
            ],
            [
                -1.8555540374080826,
                0.6852191390358269,
                0.5201743194698073,
                1.3637186042274174,
                -0.49906699892542744,
                0.4735670293118508,
                -0.6087637130455036,
                -0.7551916120048361
            ],
            [
                -0.8739143992669935,
                0.24063942675849812,
                1.3180221036364717,
                -0.5500730333142813,
                0.09133789394955388,
                0.3094332615681948,
                0.7622066329219408,
                -2.3387998383146127
            ]
        ],
        [
            [
                1.9119426605821,
                -0.7397432758841918,
                1.2493986478923493
            ],
            [
                0.22040437336167062,
                -0.7845728388448743,
                -0.7233078768409523
            ],
            [
                -1.3927851297394735,
                -2.0427685921287844,
                -0.17423593634118287
            ],
            [
                0.7799974777928834,
                0.4972942367795316,
                -1.6574584165045976
            ],
            [
                -0.5155565416444728,
                1.0127251874397367,
                -0.400434228457919
            ],
            [
                -0.5647059660166098,
                2.4840851230500856,
                1.470899240716059
            ],
            [
                -0.6575806852113869,
                -0.03937659216965024,
                0.22169194686859103
            ],
            [
                1.0496642519216097,
                0.0809545762328714,
                -1.2499812934062309
            ]
        ]
    ],
    "biases": [
        [
            [
                1.405074464799441,
                0.8274982689590054,
                -0.841110391314125,
                1.2097089281298825,
                1.1586796744942995,
                -0.39442067874684733,
                -2.386996398179771,
                1.688320812330762,
                1.1517705143992676,
                1.0541709447653016,
                -1.5069782517867454,
                0.634145032408509,
                1.7791317527293418,
                0.85181311091449,
                1.0784154059101645,
                -0.8449462440479595
            ]
        ],
        [
            [
                -0.5995345500624821,
                -0.22089343410843365,
                -0.5391281494699901,
                1.69652879422559,
                -0.004845538055704037,
                1.0184094609298584,
                -0.2419061476887351,
                -0.48175446226932617
            ]
        ],
        [
            [
                -0.8055975322653715,
                0.4898537907384858,
                -0.21263199935694746
            ]
        ]
    ]
}