{
    "weights": [
        [
            [
                -1.9250391939800902,
                -0.4230469306508609,
                -1.3371302092926567,
                0.5127548249730999,
                -0.1815433892322121,
                -0.6691818779549494,
                -0.22528335413931344,
                -0.1973928986594137,
                0.3210489856122761,
                -0.870342347903014,
                -1.5751484507903388,
                0.12827947038440862,
                1.3268709400732868,
                -0.8773810396415835,
                0.25786695367666806,
                -0.8518026773252549
            ],
            [
                -1.1905778602170811,
                0.9262479383700519,
                -0.8448858637950765,
                -0.26913222310165547,
                1.0795657118053237,
                -1.5050667445504173,
                -0.4030036417412548,
                1.0965348495900298,
                1.2319224582293284,
                0.16689424699704758,
                0.9581331094227773,
                0.2352698802117951,
                -1.8077300982091495,
                0.22949447283997507,
                -0.27508186268766704,
                -0.3132615961669697
            ],
            [
                0.4377499135323992,
                0.7671982104931853,
                0.6827826234482314,
                0.5594625015509864,
                0.7557808130926119,
                -0.007802655160280775,
                0.6109748769275006,
                0.39845363866858946,
                -0.10849221229266978,
                0.5264046471508578,
                -0.5402156591858968,
                0.03450486781420495,
                0.06912771729079323,
                0.5136012404950191,
                -0.9400796753249031,
                2.0432455955253435
            ],
            [
                0.5643462431531064,
                -0.5619968944724401,
                -1.1609020120420581,
                0.49745638359189354,
                2.780869617334968,
                0.8655838573324405,
                -1.9139039054333744,
                -0.7663573653746839,
                -0.5819614853610159,
                -0.5707337737233225,
                -0.6406626585002606,
                -1.5632938505319491,
                0.2702976133549915,
                -0.9700769431094749,
                1.071492412025752,
                1.276057632502481
            ]
        ],
        [
            [
                2.38681814160798,
                -1.420888864469376,
                -0.3298421186135097,
                -1.8553996162673545,
                0.00195013152713653,
                -0.10046337737510347,
                0.6444355412814893,
                -1.8239456513879135
            ],
            [
                0.7718883865926124,
                0.46744812187829476,
                0.5161751205129701,
                -0.43470412858415525,
                0.29114989273816394,
                -0.3907795365000121,
                1.7618579490106625,
                -0.2731479143767015
            ],
            [
                1.781465252816371,
                -0.03663864910157282,
                1.1139466217595035,
                2.2207879787497244,
                -0.8105364233436007,
                -0.0864980046064965,
                0.23716413574441383,
                -0.039907608022676844
            ],
            [
                -0.5745359684254966,
                0.8903937937753201,
                0.42149277867408697,
                1.3725560103820487,
                -0.9655794895447579,
                1.4369459875396957,
                -0.4348943205186009,
                0.2885013222616011
            ],
            [
                -1.2102527324288885,
                -0.01857958846142316,
                -0.1472554214952397,
                0.5403407510439878,
                0.36799026818699687,
                -0.7047641332156326,
                0.3727988706384663,
                -1.4927863176863294
            ],
            [
                0.3074512254361523,
                0.5450574619043334,
                -1.1295234886310053,
                -0.4964619805178798,
                -0.7161052374084618,
                1.203824056688942,
                1.0555078689433384,
                -0.6300265294850427
            ],
            [
                0.6892404874698724,
                -0.8733086999073658,
                1.5129792991180413,
                -1.2944757315447677,
                -1.0154579433895536,
                0.7980111364445149,
                -0.16621289054495622,
                -2.1593562829384134
            ],
            [
                1.5543726761970296,
                -0.6484154912466539,
                -1.3432141320520223,
                2.336487021739322,
                -2.1746500389954324,
                -0.8277411521084039,
                0.5976152677644476,
                -0.6895145423172169
            ],
            [
                -0.38583248695748573,
                0.7469356827612682,
                -0.16071134338949786,
                -0.5415969017266473,
                0.4904190117613882,
                -2.4374243750535567,
                0.9981170915584465,
                -0.2770525428997363
            ],
            [
                -0.8010080440558648,
                -0.40704718394922307,
                -0.19687759334908814,
                0.6731240105439888,
                0.43547682014893446,
                0.040976762545139045,
                -0.08560674049715612,
                0.5928590605908058
            ],
            [
                -1.3242464653179353,
                -0.05111179442838391,
                0.6350990943287332,
                -0.5064991354906367,
                -0.4707949477415032,
                -1.0202262337709187,
                -0.27779279984806865,
                3.0572583185314506
            ],
            [
                0.07581128835390909,
                0.4219161864731665,
                0.42866037998525275,
                3.0165825446239958,
                0.3107611658741866,
                -1.7708852129738737,
                0.19635558209173648,
                1.289180233912697
            ],
            [
                -0.21915038604629142,
                -0.568499835891794,
                0.03711655278478976,
                -2.7374426091497774,
                1.0158272210755266,
                1.2399993695897387,
                -0.2946832985741965,
                0.45866730792431865
            ],
            [
                1.3186092241242653,
                1.043581714903304,
                -0.6511931451780215,
                1.657900750641478,
                -2.0282049145200287,
                -0.9978670236092285,
                -0.6719186359520435,
                -0.938002941549771
            ],
            [
                -0.8674823757465808,
                1.629584943292917,
                1.3603700131387484,
                1.2954462909512587,
                -0.17508041946805347,
                1.2017413679210054,
                0.5912332716649195,
                0.30850741934111603
            ],
            [
                -0.321367177612273,
                -1.0219206730772852,
                -0.6202034485069059,
                0.5884658444284441,
                1.0397841181415288,
                -1.4956329964133517,
                -0.03426417566828872,
                0.2507239876304896
            ]
        ],
        [
            [
                0.24475547824062302,
                1.1194524723355948,
                1.5268437220039115
            ],
            [
                0.7854942960180203,
                -0.45972538057614354,
                -0.9015581055900974
            ],
            [
                1.0181764452888769,
                0.7613808943917123,
                0.32592670181152267
            ],
            [
                0.14050360556881816,
                -0.3339680637535302,
                0.040854884829871575
            ],
            [
                -1.4390927665433457,
                -0.5540848021329592,
                0.08809691180523128
            ],
            [
                1.3755508202786912,
                0.6433200944805912,
                -0.7793614625456756
            ],
            [
                -0.4826506532774071,
                0.3807316848222488,
                0.0035063478881025584
            ],
            [
                -0.5434397348825227,
                1.2371844812647577,
                -2.408540917011093
            ]
        ]
    ],
    "biases": [
        [
            [
                0.9617800043330137,
                -0.21920118969012126,
                0.5957135474823333,
                -0.5157967406524012,
                -0.9601476465652714,
                -1.257149922939908,
                0.33930730500536144,
                -0.1635966465097729,
                -0.35083279333017686,
                -1.1566677667550482,
                -0.698553949906919,
                0.8420338223666015,
                0.2028486629938581,
                0.2743908548198682,
                -0.20882812374960502,
                -1.7212835972013432
            ]
        ],
        [
            [
                0.43905438600481084,
                -0.43728150667511323,
                1.2786169582932374,
                -0.6238424937760949,
                -1.249667654224284,
                1.1683044395537767,
                0.85576249644773,
                1.5376052829026805
            ]
        ],
        [
            [
                1.5156038858723448,
                0.12616786238420027,
                0.20904242424949956
            ]
        ]
    ]
}